Mon Sep 25 16:19:32 2017 epoch 1 finished, loss 0.074676
Mon Sep 25 16:20:23 2017 epoch 2 finished, loss 0.026267
Mon Sep 25 16:20:24 2017 after epoch 2, error ratio is 0.159900
Mon Sep 25 16:21:15 2017 epoch 3 finished, loss 0.216298
Mon Sep 25 16:22:07 2017 epoch 4 finished, loss 0.055890
Mon Sep 25 16:22:08 2017 after epoch 4, error ratio is 0.135900
Mon Sep 25 16:23:00 2017 epoch 5 finished, loss 0.024925
Mon Sep 25 16:23:51 2017 epoch 6 finished, loss 0.032959
Mon Sep 25 16:23:52 2017 after epoch 6, error ratio is 0.118600
Mon Sep 25 16:24:43 2017 epoch 7 finished, loss 0.045987
Mon Sep 25 16:25:34 2017 epoch 8 finished, loss 0.085707
Mon Sep 25 16:25:35 2017 after epoch 8, error ratio is 0.121300
W: [[ 0.0228746  -0.02187466 -0.04379747 ..., -0.06593332  0.09584809
   0.09598677]
 [ 0.08788901  0.09017155 -0.0883377  ...,  0.07437205 -0.01793985
   0.07267136]
 [ 0.0997491   0.05247703 -0.03955906 ...,  0.08359946 -0.01860439
   0.0913648 ]
 ..., 
 [ 0.03142907  0.06963079  0.08958575 ..., -0.07526709  0.08625116
  -0.03392288]
 [-0.07858876 -0.09312114  0.02765426 ...,  0.03950864  0.02155719
  -0.01214158]
 [-0.03349394 -0.07225549 -0.00229554 ..., -0.06634702  0.08081716
   0.05882594]]
b:[[  4.14401128e-04]
 [  1.52699054e-03]
 [ -1.79284626e-03]
 [  2.21074705e-04]
 [ -1.27334455e-03]
 [ -3.93741583e-04]
 [ -4.83384975e-04]
 [  9.19016127e-04]
 [ -8.60926325e-04]
 [  1.80808936e-04]
 [  9.51445448e-04]
 [ -5.52386626e-04]
 [ -4.98243489e-04]
 [  9.33226795e-05]
 [  6.76216767e-04]
 [  5.11997009e-05]
 [  7.06453107e-04]
 [ -4.39069560e-04]
 [  2.61033951e-04]
 [  6.31460415e-04]
 [  9.53486423e-05]
 [  2.61019610e-04]
 [ -1.27032110e-03]
 [  2.85083031e-04]
 [ -3.86850043e-04]
 [  5.28992222e-04]
 [  8.30886985e-04]
 [  1.83241187e-04]
 [ -3.03899015e-04]
 [  3.92946267e-04]
 [  1.99842747e-04]
 [  3.96120070e-04]
 [ -7.03390880e-04]
 [  8.05576598e-04]
 [ -5.11883963e-04]
 [  1.63069423e-03]
 [ -1.51099866e-04]
 [ -4.50331531e-04]
 [ -5.61544992e-04]
 [  7.58513560e-04]
 [  4.65885042e-04]
 [ -3.28184707e-04]
 [  4.80646655e-04]
 [  5.06465802e-04]
 [  6.29123394e-04]
 [  6.31702935e-04]
 [  2.51629090e-04]
 [  1.70362312e-03]
 [ -6.82068602e-04]
 [  5.31940897e-04]
 [  1.68380941e-04]
 [ -7.90355673e-04]
 [  9.93867539e-04]
 [ -1.39148002e-03]
 [ -3.62744011e-05]
 [ -9.55431815e-04]
 [ -1.30699866e-03]
 [ -3.55870888e-04]
 [  2.09823828e-04]
 [ -2.98167581e-03]
 [ -1.18656096e-03]
 [  5.22515091e-04]
 [  8.05473408e-04]
 [  3.83348100e-04]
 [  3.38778827e-04]
 [  2.05146449e-03]
 [ -1.30963115e-03]
 [ -2.27205473e-04]
 [ -1.33489965e-05]
 [  7.31606015e-04]
 [ -1.01447443e-03]
 [ -6.79152023e-05]
 [  4.17994310e-04]
 [  5.67999035e-04]
 [  1.08408732e-03]
 [  6.68830640e-04]
 [  1.26424645e-03]
 [  7.95848434e-04]
 [  3.34633906e-04]
 [ -2.74502853e-04]
 [  2.54222270e-03]
 [  4.45109737e-04]
 [ -7.93069848e-04]
 [ -1.89293995e-03]
 [  9.94683281e-04]
 [  2.76106548e-04]
 [  3.37983114e-04]
 [  8.48121271e-04]
 [  1.48757658e-03]
 [ -2.80451998e-04]
 [ -6.98163715e-04]
 [  4.57061877e-04]
 [  2.04038068e-04]
 [ -2.48847527e-04]
 [ -3.91316771e-04]
 [  7.46028302e-04]
 [  6.35716999e-04]
 [ -9.97555952e-05]
 [  5.78073928e-04]
 [  2.91644031e-04]]
W: [[ -3.74270820e-02  -7.88662938e-01  -3.36861606e-01   3.83264992e-01
    3.96167823e-01  -2.81459953e-02  -6.97102250e-02   1.41963761e-01
   -2.07939226e-02  -2.16872647e-01   1.14271671e-01  -2.14286178e-01
    1.49463274e-01  -4.43261728e-01   2.24021281e-01  -1.30933812e-01
   -1.29324793e-01  -2.15099855e-01  -1.69428802e-01  -1.70014605e-02
    2.40790266e-01   6.37075835e-01  -4.53387336e-01  -3.80639474e-01
   -1.32353041e-01  -1.66719888e-01  -2.07126419e-01   4.42735855e-03
    1.19702919e-01   1.41170942e-01  -1.47680864e-01   7.96603267e-01
   -1.73893309e-01   2.82623029e-01   2.18984744e-01  -3.47631048e-01
    1.22520020e-01   3.20951488e-02   3.14602505e-01  -5.21824889e-01
   -2.67191878e-01  -1.69242983e-01   8.98822134e-02  -4.35195142e-01
    3.48317757e-01   1.98343040e-01   6.79365392e-02  -2.34600567e-01
    1.37967922e-01  -2.42321758e-01  -1.60120218e-01  -2.49706036e-01
    2.61807248e-02   1.10055942e+00  -2.78576805e-01  -2.31711767e-02
   -3.14902721e-01   4.12202162e-01   1.08120384e-01   1.30645011e+00
    3.98575036e-02  -1.79714207e-01   9.02698191e-04   1.58671829e-01
   -1.78034262e-01  -1.24721867e+00   1.31429610e-01   3.44645203e-02
    3.13679426e-01   5.18519557e-02   2.96056383e-02  -1.57254133e-01
    3.80739250e-02   2.34430303e-01   2.67985953e-01  -5.55981044e-01
   -6.41314046e-02  -8.42187670e-02  -9.18841229e-02   2.15734873e-01
   -1.90792749e-01  -3.04062846e-01   1.06498853e-01   1.49477672e-01
    9.86386065e-02  -1.77283296e-01   1.51303457e-01   2.27675286e-03
    1.33969961e-01   4.55046950e-01  -4.63010324e-01   3.15695727e-01
   -1.99311408e-02   2.86687034e-01   3.28032756e-01  -1.93594677e-01
   -6.99233567e-02   2.35863201e-01  -1.70457475e-02   6.54493636e-03]
 [  8.38705849e-02  -9.07867579e-02  -5.75806868e-02   6.12242851e-02
   -1.73249267e-01  -4.38120318e-01   3.35352270e-01  -2.85151634e-01
   -1.67297858e-01  -4.45768669e-02   6.15077134e-01  -1.06306624e-01
   -2.38200758e-01  -1.30812368e-01  -1.36122721e-01   4.04507221e-01
    2.76483236e-01   2.03865649e-01  -1.68026246e-01  -1.25484094e+00
    1.54150333e-01  -1.26793615e-01  -2.98522409e-01   1.85503038e-01
   -5.56839108e-01   5.26325406e-02   8.63703490e-02  -5.73242352e-02
   -1.95531045e-02  -8.24887175e-02   1.44505476e-02  -7.42407213e-03
   -1.74158696e-01   2.21156447e-01   1.02277912e-01   1.03584451e-01
   -6.75570561e-02   2.13915042e-02  -4.02408831e-01   1.34599186e-01
    9.98702665e-02  -2.26624006e-01   3.95172389e-03   9.62688513e-02
    3.50153752e-03  -1.02376864e-02   9.16158661e-02   1.20745328e-01
   -1.81502597e-02   1.03137690e-01   1.25250800e-01   7.64310263e-02
    1.72843870e-01   7.93859240e-02   1.21635540e-02  -2.01304083e-01
   -1.75635578e-01  -1.68443863e-01   1.15219817e-01  -3.55293869e-03
   -1.54373637e-01  -2.17069227e-02  -2.01022771e-01   4.01215348e-01
   -6.97434328e-02  -1.24193965e-01  -2.33257970e-02   2.32220100e-01
    1.88299857e-01  -1.36971829e-01   6.11811344e-01   4.09031235e-02
    9.10632887e-02   7.47118343e-02  -2.34556394e-01   2.03898115e-01
    2.01941917e-01   1.56605034e-01  -2.72881729e-02   2.36215519e-02
    5.89150949e-03  -1.04755649e+00   1.08097013e-01   2.70096925e-01
   -3.52210150e-02   3.49305755e-02  -2.19074716e-01  -1.23290009e-01
    3.27362183e-04   1.23185674e-01  -3.46539913e-01  -5.96030469e-02
    6.03719720e-02  -1.18370624e-02   9.09562414e-02  -9.65283479e-01
    4.75220537e-02   1.46855368e-01   8.16685166e-02  -3.06682858e-03]
 [  5.21123130e-02  -4.63085511e-01  -2.54215301e-01   6.32956117e-02
    7.08199063e-02   7.58799152e-01   2.98641444e-01   1.93060008e-01
   -3.04351866e-01  -1.97605501e-01  -2.52778384e-01   1.68165204e-01
    1.77054060e-01   1.95991662e-01  -4.55943417e-01  -5.11473243e-01
   -1.14358975e-01   1.00150861e-01  -1.61770957e-01   1.96009050e-01
   -1.85305094e-01   1.52295945e-01  -5.51208618e-01  -8.04174451e-02
   -3.49261470e-01   1.19782210e-01   1.90593068e-01   2.68132778e-01
   -1.27901779e-01   3.05689447e-02  -2.18849643e-01  -1.80380660e-01
    1.89410462e-01   1.76759317e-01  -1.21926722e-01  -3.12685525e-01
   -2.31479390e-01   2.21224070e-01  -6.55731324e-01  -2.65962313e-01
   -2.23263125e-01  -3.05063959e-01   4.73665373e-02   1.79780344e-02
   -1.82417164e-03  -1.92024674e-01  -4.68742018e-02  -7.38804736e-01
    3.12254983e-02  -5.85821890e-01  -1.72038626e-01  -4.43521531e-01
   -4.56185734e-01  -2.56944847e-01   2.57472166e-01   8.75663644e-01
   -7.38274989e-01  -3.07665681e-01  -4.50050241e-01  -3.98225137e-01
    1.90517964e-01  -4.71337257e-01  -5.63528684e-02  -2.80336342e-01
   -9.96137964e-02   2.67624473e-01  -2.22364099e-01   5.52301441e-01
    1.08720313e-01   2.29757570e-01   4.39132206e-01   2.12358392e-01
   -1.63622780e-01  -5.09824848e-01   3.25142833e-01   7.59287506e-02
   -1.73036594e-01  -7.30601512e-02  -2.07437837e-01   1.19326503e-01
    3.57452904e-01   3.77894205e-01   3.12535042e-02  -6.82856141e-03
    3.67361438e-01  -8.97945894e-02  -1.78811502e-01   5.74384600e-02
   -4.04808516e-01   3.25296410e-01   8.65769272e-01  -9.53834317e-02
   -5.23058100e-01   5.30645553e-02   5.65017737e-02   3.38214605e-01
    6.34392210e-02   2.06621194e-01  -1.78433658e-01   1.44490344e-01]
 [  3.44227859e-01  -2.44294274e-01  -8.88843163e-02  -5.14478087e-01
    2.57689340e-01  -2.69470088e-01   4.50533981e-01  -7.72006666e-01
   -2.20324050e-01  -1.19014886e-01  -4.75566849e-01   1.36803241e-02
   -2.81908617e-02  -1.41141152e-01  -2.81206453e-01  -3.39932477e-01
   -2.86301072e-01  -1.66364983e-01   7.91533643e-01   1.97380351e-01
    1.54029275e-01   1.74285492e-01   2.42718759e-02  -4.44312732e-01
   -4.59426804e-02  -7.55450253e-02   5.34797631e-01   4.61261171e-01
    1.75778799e-01  -8.01367704e-02  -1.70174399e-01  -2.22248209e-01
   -5.79491899e-02  -4.61972711e-01  -1.08706225e-01  -5.34865584e-01
   -1.76205852e-01   2.22882033e-01   5.18746089e-01  -3.64732114e-02
    1.39112955e-01   2.96041594e-01  -8.76429194e-01   1.00983964e-01
    2.76114926e-01  -6.91250563e-02   9.79381300e-02   4.08356702e-01
    1.16064695e-01  -1.06153066e-01  -1.15494996e-01  -1.32079080e-01
   -3.13568633e-01  -2.91885778e-01  -1.88240559e-01  -4.76580492e-01
    2.06790529e-01  -1.95133922e-01  -4.45883009e-01  -3.74303382e-01
   -2.16961046e-01   6.10891636e-03   5.99552069e-01  -1.71394441e-01
    1.26414923e-01   3.68599084e-01   2.53796650e-01  -5.94066460e-01
   -3.28888768e-01  -3.45752904e-01  -2.43635600e-01  -8.99629599e-02
    2.21220133e-02  -3.10431872e-01  -5.78722273e-01  -5.54007269e-01
    8.24443370e-02   3.90757070e-01  -1.29337080e-01   1.25710901e-01
    3.67753628e-01   2.69520809e-01   4.99811301e-02  -2.73983001e-02
   -8.56234408e-01  -1.36705366e-01   2.98368798e-01   2.81762550e-02
    5.28728613e-01   9.41338188e-02   3.21996995e-01  -1.74635812e-01
   -1.40752135e-01  -2.67433753e-01   3.34349757e-01   2.94623910e-01
   -2.76468265e-01  -5.23802356e-01   1.37192499e-01  -3.23996986e-01]
 [ -1.31126565e-02   3.61096077e-01  -6.79621899e-01   2.20273035e-01
    8.09857269e-01   1.62499100e-01  -7.02667360e-01  -1.37868369e-01
   -3.34092162e-01  -6.49981357e-02   3.63348073e-01   1.57143050e-01
   -2.55467169e-01   9.61655989e-02   9.53894155e-02  -2.92615174e-01
   -8.25472761e-02  -2.24072656e-01  -6.64136468e-02   1.10295774e-01
   -1.24800242e+00  -6.46249419e-01  -6.60023507e-01   2.52120646e-02
   -4.58740677e-01   3.75630643e-02   2.22484055e-01  -3.29383170e-01
   -6.58142798e-02  -3.30424642e-01  -4.97925737e-03   3.68301668e-01
   -1.72238594e-01  -2.20871076e-03  -3.24385527e-01   3.44616736e-01
   -6.57939256e-01  -1.48854045e-01   4.19165324e-01   8.22265034e-02
   -1.48883330e-01  -4.47921243e-01  -1.03987450e-01   2.25633380e-01
    1.68779786e-01   1.33297416e-01  -1.90298814e-01   2.63910001e-01
   -5.26630131e-01  -1.73006760e-01   8.82118375e-03   7.97336977e-01
    8.74101045e-02  -2.32284638e-02  -2.93414865e-02  -1.40968012e-01
   -3.61483922e-01  -3.20063596e-01   2.72470530e-01   1.26224105e-02
    2.25383370e-01   2.44919295e-01  -2.51392320e-01   7.85667168e-01
    9.60471192e-02  -1.98915272e-01  -9.65966688e-01   5.42087724e-02
    1.74060841e-02   1.91378085e-01  -1.27261423e-01  -4.15455324e-01
   -1.55768721e-01   8.55188291e-02  -1.23732868e-01   6.58912460e-02
   -1.90779449e-01   2.82197791e-01  -1.14170252e-01  -2.28318288e-01
   -2.44286847e-02  -2.03815677e-01   2.97451753e-01  -2.05824278e-01
    9.23602544e-02  -5.17672028e-02  -2.70199284e-01  -7.75080056e-01
   -9.84458079e-02  -2.52212631e-01   2.25572698e-01  -9.99279202e-03
   -1.71821954e-01   1.03317173e-01   1.12225548e-01  -6.90110192e-02
   -1.72982362e-01   9.25792406e-02  -2.07317268e-01   1.14237084e-01]
 [ -2.62822904e-01   2.66732401e-01  -1.38385766e-01  -1.35399143e-01
   -5.94427974e-01   3.15509147e-01  -3.61521324e-01   2.75955304e-01
    2.54934512e-01  -2.67865331e-01   4.07908229e-01  -2.17562230e-01
   -6.95106095e-02  -2.06515538e-01  -1.16768072e-01   7.57342096e-01
   -2.94963855e-01  -4.17630912e-01  -1.08733480e-01   1.27446750e-01
    1.68262095e-01  -2.52148996e-01  -3.16603177e-01  -3.44134670e-01
    1.69425925e+00  -1.32735944e-02  -4.78594902e-01  -1.81367639e-01
   -1.43929681e-01   2.65744345e-01  -1.40331240e-01  -3.76396846e-01
   -1.09078799e-01  -4.92989125e-01   3.48697627e-02   6.85628560e-01
    4.02369249e-02  -5.49123803e-01   1.20696542e-01   3.23082838e-02
    2.28334191e-02   5.56110085e-01   4.96263980e-01  -1.31060263e-01
    2.08290700e-02  -1.01009803e-01  -1.19207743e-01   4.40038773e-02
   -7.99915330e-02   2.24297763e-01  -2.47687487e-01  -2.96757194e-02
   -1.89838680e-02  -3.56336667e-01   6.73055211e-01  -3.82621223e-02
   -1.14420166e-01  -1.70961748e-01   2.05462723e-01  -1.58397595e+00
   -4.60950709e-01  -5.48423114e-02   9.74774850e-01  -9.16754704e-02
   -1.41083971e-02   8.04129962e-01  -1.57584577e-01  -1.85718065e-01
    5.76808596e-01   2.72504722e-01  -1.87454725e-01  -2.80461164e-01
   -8.75825739e-02  -2.29749307e-02   1.77057120e-01  -1.03819780e-02
   -1.75940788e-01  -5.93970187e-01  -2.37562892e-01   1.68095434e-01
    3.84152946e-01   9.78938979e-02  -6.93053815e-01  -5.44147290e-02
    5.95400227e-01  -1.82768117e-01   2.94635835e-01  -2.19992098e-01
   -7.93995559e-02   2.46494215e-01  -7.28772998e-01  -1.58606298e-01
    6.79858920e-02  -4.52889573e-02  -1.06446913e+00   4.97653350e-02
    4.45749124e-01  -1.65034049e-01   6.64055753e-02  -4.97544424e-01]
 [ -8.41377463e-02   4.47505581e-01  -6.01579566e-02   2.86193339e-01
   -5.90680942e-03   6.72759350e-01   7.55202598e-01   1.06313482e-01
   -2.42525550e-01  -1.43076085e-01  -4.14558648e-01   4.10340482e-02
    1.31196970e-01  -1.40762241e-01  -4.75217764e-02   6.63829338e-03
    3.12849025e-01   3.94529954e-01  -2.29664115e-02  -8.94162899e-02
    7.10240327e-01  -5.07042892e-02   1.16648410e+00  -9.46222635e-02
   -2.06379504e-01  -1.91021592e-01  -2.63911688e-01  -1.75601987e-01
   -4.12761273e-02  -3.03508815e-03  -1.63084885e-01  -1.63736975e-01
   -3.36326124e-01   7.25062124e-02  -2.05458393e-01   1.68694365e-03
   -2.46193994e-01  -6.61781576e-02   2.02710321e-02  -2.83981111e-01
   -1.58190098e-01   1.21043009e-02   1.99019419e-01  -1.75207296e-01
   -2.04004337e-01   1.10354784e-01  -3.66744361e-01   5.71745983e-02
   -4.86007448e-02  -4.46551881e-02  -1.44238483e-01   1.36945894e-01
    1.84557185e-01  -2.68589036e-01  -3.36505563e-01  -4.01229397e-01
    1.01922986e+00  -2.49178497e-01   2.78148372e-01  -4.82900723e-01
    4.19347418e-02  -3.13075463e-01  -2.97107414e-01  -1.29330169e-01
   -2.10268771e-01   3.48133725e-01   1.45247974e-01  -3.15214996e-01
   -2.56291243e-01  -1.77915075e-01  -4.90263787e-01   6.05411218e-01
   -4.40624357e-01   3.04946450e-01   1.68624429e-01   2.37489995e-01
    2.03261060e-02   4.20413430e-01  -1.28688621e-01  -3.58928945e-01
   -9.06831483e-02  -1.00709157e-03   1.31483686e-01   2.35519774e-01
   -1.22628107e-01  -1.56517043e-01  -3.47281621e-01   1.10741139e-01
    2.74989563e-01   3.58050881e-01  -6.18985163e-01  -2.12115748e-01
    9.86466112e-02   1.27672527e-01   1.00600296e-01  -1.40582599e-01
   -6.89760712e-02   1.23500133e-01  -4.64116624e-01  -4.72888944e-01]
 [  3.26924528e-01   1.59437713e-01   2.36533551e-01   9.89843401e-02
   -7.40884530e-01  -4.61367874e-01  -1.48456189e-01   3.99745955e-01
    3.57942538e-01  -4.72065964e-02  -9.55950719e-02  -7.72187253e-02
    1.60269438e-01   6.42513578e-01   1.50337218e-01  -1.03386220e-01
   -2.96824040e-01  -3.75852067e-01  -6.74700870e-03   4.31461135e-02
    3.38475134e-01   1.63719572e-01   2.68013141e-01  -8.29372560e-02
   -3.26317278e-01  -6.22702564e-02   1.76519995e-01   1.54655383e-01
    9.25964658e-02  -2.32901417e-01  -1.39589727e-01   4.50555259e-01
    2.82557357e-01   1.57218871e-02   9.52825232e-02   1.12195320e-01
    1.38870874e-01   8.92675502e-02  -4.45119727e-01  -4.36995929e-02
   -1.16963229e-01   1.37352110e-01   1.72932925e-02  -2.83054986e-01
   -9.60272842e-01  -1.98125066e-01   5.43758032e-02   7.60567892e-02
   -1.43683693e-01  -1.75515828e-01   2.56574250e-02  -2.76993296e-01
   -2.02891986e-01  -9.03182768e-02  -2.35125393e-01  -3.25721750e-01
    1.17171473e-01   5.08368965e-01   8.69009604e-02  -1.35276019e-01
    1.53383270e-01  -3.44773028e-02  -2.20185882e-01  -2.95384405e-01
   -8.83231576e-02   1.97189196e-02   9.54137784e-02   6.54028033e-01
   -3.97357428e-01  -1.84019508e-01  -3.36581507e-01  -1.73774290e-01
    1.12543110e-01  -7.41024063e-01   8.44172654e-03   1.95549061e-02
    3.24922663e-01   1.41093037e-01  -1.61196728e-01   2.97880229e-02
   -5.69338945e-02   3.94278852e-01  -3.48303093e-01  -3.36006336e-01
   -2.36533607e-01  -5.67617150e-02   8.30303790e-02   5.75922750e-02
    1.62516468e-01  -7.57579783e-01  -1.39152930e-01   1.85576017e-01
    3.69647787e-01  -2.38269868e-01  -8.47058842e-02   2.67349250e-01
   -2.69688597e-01  -2.04839469e-01   2.86613255e-01   1.40152374e-01]
 [ -1.32344605e-01  -3.76019183e-01  -5.10729372e-01   4.02361379e-01
    2.27350030e-01  -7.60475227e-01   1.15932819e-01   4.59348959e-01
    6.97596886e-02  -4.29714496e-01  -9.72673959e-01   1.19064552e-01
    1.54276609e-01  -3.51378966e-02  -5.16228025e-01  -3.96456892e-02
   -4.35469304e-01  -6.17230570e-01  -5.26476710e-01   5.49821260e-01
    8.77849096e-01  -5.23401040e-01  -5.10793800e-01  -1.41083501e-01
   -5.27151167e-01  -3.84253984e-01   1.59858065e-01  -1.90507764e-01
   -3.07384189e-01   7.59584767e-01  -3.17784773e-01  -4.65157131e-01
   -6.97162384e-01   4.19630840e-01   2.98761795e-01  -3.34629686e-01
    3.85117789e-01  -6.29124447e-02   3.02864330e-01  -1.79247442e-01
   -4.03331892e-01  -4.80217085e-01   5.55031048e-01  -2.33827450e-01
   -1.25006160e-01  -5.13976196e-01  -4.90230775e-01   2.12966960e-01
    2.79238481e-02   3.87415947e-01  -3.20344322e-01  -1.98986512e-01
   -2.99844957e-01  -2.91368463e-01  -2.76363831e-01  -8.59797361e-01
   -1.22873051e-01  -3.61676989e-01  -9.75288188e-02  -2.67499516e-01
    8.18928994e-02  -2.76534334e-01  -1.19769436e+00  -6.93812258e-01
   -2.26516449e-01   4.29122646e-01  -3.42256782e-02  -3.32406187e-01
   -8.94479027e-01   2.00864028e-01  -2.79219124e-01  -3.46779582e-01
   -1.65805584e-01   6.28215314e-01  -8.61287683e-02   2.35177766e-01
   -2.06582191e-01  -1.44466847e-01  -3.78122809e-01   3.81867520e-02
   -2.08634815e-01   2.70262917e-01  -4.72422047e-02   3.70269685e-02
    4.54364620e-01  -3.48481899e-01   1.74067221e-01  -4.55223512e-02
   -5.86829866e-01   6.77304405e-01   6.90822857e-01  -3.35106092e-01
   -2.13326255e-01   5.19151820e-01   2.88213969e-01   4.14341658e-01
    1.54779511e-02  -7.19428929e-03  -4.72345444e-02  -5.62049368e-02]
 [ -1.03305477e-01   6.78284342e-01   6.47634520e-01  -1.84083103e-01
    8.47236810e-01  -8.16720092e-01  -3.48151712e-01  -1.12135536e-01
   -5.24056960e-01  -3.03013648e-01  -4.02717798e-02  -8.15722046e-02
   -2.20857444e-01  -5.77036576e-01  -1.34971233e-01  -2.19488297e-01
   -2.61984930e-01   7.86095844e-01  -1.40082618e-01  -2.07108808e-01
    3.68526050e-01   6.34754010e-01  -4.08362817e-01   3.71750877e-03
   -6.58170131e-02  -3.44914669e-01   2.20234890e-01   4.91467291e-02
    1.71117726e-01  -5.74607275e-01  -1.35693836e-01  -9.71595576e-01
    7.07741654e-01   2.44174886e-01   1.30888523e-02  -3.18467634e-01
    4.98100763e-01   2.48303320e-01  -1.12802629e-02  -5.60561330e-02
    5.69233049e-04  -1.96118878e-01  -3.34543132e-02  -2.59027314e-01
    9.93695046e-01  -3.17169726e-01  -2.58550731e-01  -7.13774409e-03
    2.98124724e-01   3.81991287e-01  -2.93913672e-01  -4.79172215e-01
   -2.10669011e-01  -1.15431059e-01  -6.03263101e-02   1.90494838e-01
   -2.73292403e-01  -3.77953972e-01   3.14358730e-01   2.11661840e-02
   -3.77435093e-01   4.62690393e-03  -2.99248267e-01  -5.26107338e-01
   -2.43013994e-01  -2.87596439e-01   4.33130160e-01  -1.05127510e+00
    5.04063507e-01  -2.20754043e-01   2.00756339e-01   7.04963825e-02
   -1.58982574e-01   8.65591409e-01  -1.03849933e-01  -2.29468531e-04
   -1.97187919e-01   3.46120787e-01  -2.83874446e-01   2.23717066e-01
   -1.55671684e-01   3.38556270e-02   1.40637441e-01   3.79368479e-01
    8.08810772e-02  -2.43711653e-01  -5.39408282e-01   3.85393499e-01
    2.95215577e-01  -2.43834450e-01   5.21623542e-01  -3.16915111e-01
    2.38191584e-01   2.35052751e-02   3.12278116e-01  -1.59514016e-01
    3.05582647e-01  -2.79152906e-01  -3.73645118e-01  -2.19330972e-02]]
b:[[-0.1315587 ]
 [-0.03259502]
 [-0.14444586]
 [-0.10023462]
 [-0.05370022]
 [-0.18320843]
 [-0.12718189]
 [-0.07793449]
 [-0.35038398]
 [-0.24275331]]
None
